// Auto-generated by train-local.js - 2026-03-13T18:52:32.630Z
// Best fitness: 2574.2 after 30 generations
export const DEFAULT_WEIGHTS = {"layers":[45,32,16,13],"weights":[[-0.11647763641146686,-0.7913684918468231,0.8391846524599443,0.48022695028424595,-0.08871595145200295,-0.39642290015380455,0.30112606509712225,-0.3161216180312991,0.5534167545165687,-0.03840882921494871,-0.17630755962657294,-0.0022037435326986987,0.07932782712392566,-0.26311852902301275,0.03750002941456282,-0.34656322072056145,-0.16116498305906893,-0.15529989585200413,-0.3680272744752606,-0.15727001011456437,0.21716309808820927,-0.6426990528066572,-0.12968211434538737,-0.42803083098101835,0.14472889308520517,-0.1245251534754215,-0.46331994019085665,-0.46685614276563486,0.24376676855870602,0.8259489397413101,-0.5447121726938386,0.2975305902393415,-0.4390899611813646,-0.5628120448259323,-0.6065714250572373,0.011944203020309511,-0.6453126686144776,0.14883108852161997,-0.17995360641291047,0.05798872939714439,-0.1614186852447069,-0.28614005544676396,0.07056402306065321,-0.12384734357974922,0.5095734856032715,-0.2960968471616571,-0.5761959030398387,0.02225616882279058,-0.4606117573534883,0.43412327147503893,0.2536442866828632,-0.30823603317762927,0.3354521059321798,-0.6020350337742153,-0.34578734203679634,-0.461812994620153,0.15632885263269208,0.17615443682386073,0.1033094342283063,0.09230002625089859,-0.055241902905608736,-0.2822827122903223,-0.3639028852579853,-0.2207151586289775,0.04460102332089955,0.055211470781571875,-0.10371450358329007,0.32137545695013675,-0.1165052959364197,0.14912492407315842,0.00186429402488622,0.3952109896330974,-0.5098450719897569,0.419163306387637,0.2712798943588182,0.14156675845977157,-0.1267730398403576,0.22750562081678916,-0.170573752224104,0.24110549205064835,-0.03765025327102717,-0.18922031496904035,0.09963493853155675,-0.6683471219955124,0.0736986083584371,-0.6536282206912706,-0.1694844624087502,-0.2867892197382377,-0.04314980940012586,0.19980905800794643,-0.012243057114323497,0.2125326079307744,-0.06690642092262927,-0.2454487035885029,0.044170740678562526,0.2112270983521749,-0.020316095631098707,-0.5095443264863604,0.1681807543345888,0.27365981179937965,-0.8036616848502642,-0.23717972322422573,-0.23320594735755398,0.6377193529193912,-0.31471140652893825,-0.3033059794749835,0.40852257167431827,-0.17617024683015972,0.38727589823468656,0.3168226303433235,0.40573769388119524,-0.14491207721349764,-0.0993721340248496,0.11816911533987376,0.1773420722429811,0.003477155877925908,-0.4457113968863315,0.09147784163108236,0.302581999178492,0.21556581832515603,-0.038322733235843474,-0.5112540180957517,-0.2383416877150256,1.0477206580366918,0.3436081462438221,-0.18560437032213922,-0.005938981740427035,-0.06023857721337009,0.6049410335374326,0.48547428118611335,0.7990211563848699,-0.08204844163813821,-0.4387985286158086,0.1323847400092111,0.7616298591487323,0.18015068361151437,-0.2607001503429595,-0.04240373641668979,0.19888755878222175,0.03369318286304371,0.2199369809732971,0.10049967870413362,0.5827139578028593,-0.30537736327582243,0.3220520659891428,0.11111472009022016,0.2493370993481923,0.07005476214151224,-0.17034124779335533,-0.006037654568616463,-0.24032762120381174,0.2148233312073163,0.5027783891740227,-0.15028234650104547,0.01551610679103807,-0.2670595304292749,-0.0890132151530411,-0.18114794447421925,-0.697847493584742,-0.20306779562467797,-0.09555166685409612,0.011425139224067377,0.4556154956214558,0.1865583986869722,-0.04967646415412621,0.045130841555450316,0.05512656190361906,0.47430083261058986,-0.06647325546152272,0.5777050698540692,0.16679895041035997,-0.4132958156505372,0.08523748776440837,0.8361267404641657,-1.2813834973261506,0.16913504540999907,0.7533701143960252,0.36279603231954655,-0.1393746216333158,0.2349130789725732,0.2643141195542181,0.1211964007628576,-0.08478511389301993,0.5033644891164406,-0.29577597055927857,0.0884166084463476,0.6559506763623735,0.18008601220672094,0.02564342084556992,0.4199921899264294,-0.2680057758169859,0.26977742707309377,-0.584414440160686,-0.30634954069194914,-0.1609361074283685,-0.07275661658331228,0.31035182646685294,-0.43450352785593344,0.5599181281659453,0.34974648775676176,-0.5478949977564457,-0.14255870729031117,0.239385674083253,0.2767691580734538,0.5257258044204998,0.2626668243845,-0.31860471583822925,-0.36896642987276407,0.6246401082909153,0.5362109995798485,-0.7253311035586667,0.13642376117467803,-0.1778829516983024,0.7325111614154034,1.098802552066074,-0.1250925966690905,0.38051277366016023,0.028400040519338365,0.2757410429811035,-0.19582011732747812,0.1901110202509142,-0.01893527560413344,-0.2124468882818063,0.13325901626622882,-0.08198004493865135,0.06462447782186753,0.2985595009554943,-0.3680943114428823,0.44377417095059546,0.11567011491244061,0.27308359954174133,-0.4914549489699094,0.05540708521707205,0.08111276410497556,-0.3268348707168063,0.20635649095276556,0.4731984867452401,-0.04681560999083593,0.45699621167126403,0.012266371531999276,-0.42489986978568955,0.33815358100515025,-0.22722496419053959,0.25118315948915304,0.13044489476225068,0.32309603727847547,0.2327554080818508,0.2939771106126259,0.3650202203991012,-0.7589656175937274,-0.880612702355489,0.23202305140985213,-0.3067618231052692,-0.1724677789452997,-0.24586875720555523,-0.38081224647174644,-0.15410208631205097,-0.5378878454014056,0.08755325736995608,-0.20245517195536358,0.09031126974341037,-0.17993792655631122,0.17928228738658702,-0.11953199009710785,-0.17841884853859857,0.8889144196529672,0.16777828608396328,0.1707176400113028,-0.19362848603047486,0.38881016014333647,-0.12739936050017137,-0.05654310401542062,0.3980489463390412,-0.1346629726067377,0.018178423857835496,-0.02568385768585428,0.058333607639788065,-0.16690712845748412,-0.312076892200365,0.43017899913728697,-0.05009826209131518,-0.1657756875525327,0.249821289987639,0.2623777915226525,-0.21052125957213283,0.15443301732548764,-0.14966039731055364,0.051151706519975054,-0.7554997207962134,0.30479739544814544,0.7448695407543111,-0.16463842560644254,0.370644381946234,0.39737593418631234,0.23230332907146356,0.5456283690640762,0.3472340570725763,-0.6022255807373359,-0.08872629732730249,0.31144073895309954,0.0513152444151973,-0.31575203166333776,-0.5886643906540704,-0.11778890734031393,0.527034557409214,-0.2376826369459506,-0.46926795593223114,0.5480906099795855,-0.3758690293234495,0.17263541883437566,-0.2718295137053655,-0.32596218329058835,-0.43814812228686095,-0.43512417333269277,0.04885063083367504,-0.09715526906595033,-0.4626830901896889,-0.046613097672748904,0.040382862338547966,-0.6194061175642838,0.11472611949193638,-0.05164603659873354,0.877830876852084,-0.43251810255285494,0.27573296311465395,-0.13936733953037056,0.8384212378435851,0.1555346930613712,-0.35059548417121345,0.09308605275356135,-0.08372972763305941,-0.6981485492773023,-0.10085104891718094,-0.4958359898948299,-0.0922779332204143,-0.2634466962791522,0.05549390403349297,-0.07555356677639113,-0.0786902735252812,0.540913983729195,0.6709184610601245,-0.008910935543748916,0.1849969802518155,-0.09641534518425524,0.018214841612830917,0.2712737708085881,-0.27394380880463387,0.4768704281694488,-0.23654398089504142,0.13488561312156552,0.07404842963712253,0.15886080015119325,0.2334289856889125,-0.6484569224309756,0.1385748825630003,0.8449515473252347,-0.6652414822759714,-0.21257695601654905,-0.034405938749562485,0.01599969203350386,0.46144627841277164,0.05725401452795041,-0.09431398445316584,0.23178918490732173,-0.12742219305119815,-0.06999356911847748,0.18272440638572612,-0.49335996098486185,0.1595096845354011,-0.7122353705127626,-0.2621421091307112,-0.09456299340999443,0.04734877587119368,0.045734777377096525,-0.32225467165411215,-0.128617522334873,0.10929956265127874,-0.20060073794261943,0.5105405617654478,0.1815457022515981,-0.12956390862109055,0.11561878362704064,-0.12020111516643382,-0.17794864042721442,0.7354962231209414,-0.48262344589653833,-0.07051888110088476,0.19549617811657377,-0.11115444026403168,-0.612291670142031,0.5273284314950438,-0.2610215240221104,-0.09013086100853993,0.1398800807572922,-0.1430092254425939,-0.1577795554898706,-0.4011851639085856,-0.19572992498144268,-0.5219857972507436,0.08502701396224445,0.1854573763968615,0.3046950364132428,0.06479688257071953,-0.31397985296867914,0.5701654916160874,0.002177255029456566,0.21353906141816323,-0.21830831007222645,0.933258534608163,-0.053956606289897555,-0.3278363135424503,-0.2681725679386491,-0.07101144547241917,-0.5221227383315414,-0.09135178871329075,0.7793173083738562,0.015745977663902788,-0.1474434060991153,-0.08009608547368352,0.9537720022095988,-0.27553446119040215,-0.1925535077688918,0.3296333278864171,0.1320252877732366,-0.17073649065065405,0.4729241561579939,-0.4442577456401342,-0.6650076760564215,-0.5259778321250328,-0.05423558171090693,-0.04385094745342565,0.01362804997253092,-0.6735982887130874,-0.02084273157285955,-0.028201023677100714,0.24270505696019368,0.15076421008896645,0.12836889261980533,-0.1639175548789281,-0.676149389322845,-0.4275542311596906,0.18784313884481726,-0.18956954092640166,-0.011978068565267244,0.04954391022962102,0.017734907374186593,-0.17147058587200403,-0.23434791775120045,-0.7120886443550214,-0.20661797106359422,-0.49663424404597434,-0.07760159334762726,0.5221768723635598,-0.3586251814583366,0.09990429720104868,-0.5664379458875299,-0.0690345932701225,-0.6039616720848611,0.22065235862858817,0.11428525652846334,-0.4214075218766906,0.10028418700737765,0.18106997768474384,0.7100564373098842,-0.09676252341646982,-0.4571012794216794,0.21019529974831164,0.44427030406987866,0.4640873042051762,0.2746928855554224,-0.3811378888616854,-0.13810050999805912,0.4205791382210498,0.5335181668949532,0.5274456778122609,-0.028267788429289196,-0.5999302524714303,-0.06518158897969323,-0.021684941681390568,-0.29548590718867596,-0.040274024378577196,0.4888697000157904,-0.049017556459617695,0.6841105116173388,-0.09121365618100777,0.3894233893134257,0.28858525666345125,0.15844453154245486,1.1983702942122691,-0.24584594105010804,-0.09066247407846077,-0.43514958962798755,0.24992371060910099,-0.13440831438121675,-0.22859621174296654,-0.48398505605707454,-0.11447042254784176,-0.19806311285747608,0.44159098971598715,0.45869165208449825,-0.053165392565244586,-0.3196405032120304,0.20226388747693302,-0.2871184278612887,0.6829246713458467,0.4266791575178532,0.03317553327485856,-0.4447373972492708,0.07934578034607193,0.3540655312825577,-0.020558900095408672,0.12369005334363731,0.19413408531361334,0.2333423343429408,0.38782498354570843,-0.19767085583214777,0.82129934292902,-0.12975222861148672,0.043066638132493396,0.17800598550795116,0.15890858198509586,-0.06001958483489611,-0.10231059627254119,0.03567820031879243,0.5400844631759493,0.37696769007793673,0.003739860437203424,-0.6930380498289168,0.40659935724964336,0.4326300468068274,0.21110410025409262,-0.021567687542239155,0.2856295609230679,-0.4782386712585702,-0.19281009967704685,0.3887401449798742,-0.6316183455877653,-0.8457674247280483,0.029871411528547887,0.07424925821524736,-0.20073530713128276,-0.428714293509786,0.5761207201511858,-1.251274686598957,-0.19407161707908618,-0.08632352463785725,0.3899740982199271,-0.5592434823887726,0.6808772801278347,-0.3074948223959888,0.04588955155553365,-0.07998779927851885,0.7907421832212087,0.052280821803053795,-0.6589301483120409,-0.43229720339702293,0.022440609814903728,0.17494464048112335,-0.03347206446093597,-0.099346552875041,0.004128822833787543,0.33933518984418554,0.4728737814555589,0.35685085644810516,0.3238326130577749,0.18227642281762935,0.17101047790673574,0.5802002911516674,0.31981143358657727,0.23254342087231272,0.026980405927566467,0.008599251013273699,-0.21768557603365193,0.4421579062644297,-0.3403085988270661,-0.6677274844652716,-0.17183485493872558,-1.262220523072266,-0.2400923611357142,0.49583492712284905,-0.6048022078219004,-0.1805696740940509,0.1352038413616333,0.05329041130717582,-0.022462577807577516,0.09874860383751388,-0.24508709137456292,0.12333603085710228,0.3233693102527523,0.2958976992537568,-0.3584698272483704,-0.6736129476895533,0.105227888258357,-0.19687843900701119,-0.22466363237368767,0.3152371817523099,-0.37938158617070344,-0.422848791538025,1.0830984782594366,0.05085525506216128,-0.6336735575494907,0.11451373775068245,-0.10333051651244779,0.20228202732292838,0.2606816418616165,0.40858780370998976,0.49187659155090235,-0.4863353715377781,0.07663442777940047,0.7740465978670553,-0.4895354742260718,0.25283991550262824,0.04137519323405758,0.09925245965781786,0.11543778658394027,-0.6782950254922404,-0.04276748618622045,-0.19879777548162958,0.10351779400513302,0.601976865739456,-0.1457640625642996,0.3824347538898809,-0.24162631455594014,0.1343479732821848,0.027072287493089486,-0.22929690892187451,0.006128478663059349,-0.21058662775186662,0.07877460575214368,-0.007927830966922705,0.1858759768282189,0.2109881136942464,0.19115816803321503,-0.44212201294391895,-0.3274103623226292,-0.5020397009424199,0.09412579164729926,0.24400009072100298,0.04872940946805057,-0.031289035490025874,-0.4205044000359426,0.3050642064731644,0.13431015447909778,0.40231384626996275,0.024944790388413546,0.007763560493641408,0.05236983165861969,-0.5267843874615221,0.18085572104801495,0.5215932642783419,-0.20549547827180425,0.07717000954715522,-0.1204019984143061,0.512258992369357,-0.42245296834036655,0.2584514544860798,0.34378176526175497,-0.12344935855526334,0.08297243257635395,-0.057999790879794316,0.21626139390407542,0.05807109319421758,-0.41148467014402035,-0.14767856200697835,-0.06534814856483384,-0.5160285661943657,-0.5860943674926037,0.5853280603595752,0.9863131744697626,0.17329183654163288,0.21338880302584415,0.23679374625639688,0.11800477939448517,-0.03718020079694437,-0.055575815376028015,-0.06659328959750788,0.1368814518973308,-0.33846418354885915,-0.08387837729755393,0.16532083232185715,0.26735928786852386,-0.055218688646145486,0.17818915728176876,0.3034339345367929,0.3445697881410091,-0.03638976658832627,-0.07302652379284684,-0.9614642409249379,-0.197709653474968,0.08246342092434075,0.5034673330207626,0.39601951271395897,-0.4808266482658046,-0.25988278015526234,-0.268831041364916,0.18868506195700507,-0.7770028124626431,-0.2490987336657214,0.05150866086039824,0.18132276057090846,-0.028191701112412797,0.5922444488844403,0.3206043022850117,0.6779432103233761,-0.23131947282115528,-0.5338032523186489,0.3018226888113164,-0.3022066022464728,-0.7025617344105218,0.3742176472273149,-0.0705931570484114,-0.5007887503525481,-0.1315287494027022,-0.46484080400283334,-0.13916075550809454,-0.0004798642357025651,0.07236999599169103,-0.12980348813792994,-0.24452143206982618,-0.004368149059944289,0.3967389067305061,-0.6002707471946198,-0.42956065462038484,-0.08537868205026533,0.7891385740451609,0.24352100599125392,0.19229743774452993,0.49184346039758103,0.3590900272827938,-0.2746336010448573,0.2334351331869303,0.8031511883086435,0.6318291411220192,0.18608983823633773,0.021176908764145047,-0.22428481100993705,0.2654352128605022,-0.29147031166601184,-0.0011804832198918647,0.44240592172209775,-0.1707288449490331,0.5141580533958704,0.24104291337427922,0.1684928647704208,-0.02077899391181462,1.3163540813727752,-0.17118533717853618,-0.18749600460542318,0.28678891834919806,-0.23745833971022975,-0.016163392846000824,-0.1867131416603566,0.11298021587748613,-0.7595608122643447,0.3292642865075731,-0.019751685382938033,0.5252359863437737,0.5808403211101362,-0.20803282783968194,-0.35175158502945847,0.5177671965670756,0.14040120359543967,-0.16879586148023124,-0.42136573542605027,0.1358302727086041,-0.21785001118499653,0.005228976836937627,0.06965261185043425,-0.028661542900912124,0.027780615745431253,0.005815781538978551,0.004714829777118235,-0.29656025494872057,0.07563263968586659,0.36128972051490027,-0.39382775559203,0.3811172329450385,0.2893398875773815,-0.09456808716243885,0.5298702025965752,0.09801181488290345,-0.10268859097057603,0.09493057012273617,0.1282499377837634,-0.25416570734851185,-0.5397805999881844,-0.30525626114339816,0.06541323779295277,0.0012126973028340204,-0.12991908106584932,0.14305552219952367,-0.3473817117853195,-0.6263728053748927,-0.46631446222930106,0.23933633184539196,0.9299080194280752,0.1917379019073371,-0.02451738044607174,0.3354188504376342,-0.13697453935150763,-0.23802124979435418,-0.0908840305308462,-0.01323047792192517,-0.2584924013191661,-0.3478693577270036,0.2874740046950291,-0.012444285574142941,-0.3167560890584818,-0.1033723292442669,-0.08129263854459215,-0.11271690978578551,0.08340578008163435,0.09215923295693655,-0.5432027080313255,-0.19632645199068743,0.5239313439742741,0.33437533484679016,-0.17719461682751814,-0.23097377362874283,-0.5559739237664814,0.36099287154577664,-0.6523455103064995,-0.04555318691634658,0.1821367654936029,0.16434725517894716,-0.043297747656794394,-0.15866022604635321,-0.662395760916876,-0.029968770384596458,0.23502601161512235,0.8048429159837428,0.3562854810880186,0.20326900249872515,0.17571049975821695,-0.11524282778861797,0.4891492863991346,0.2899128632610793,0.04913479325145244,0.25308152658680916,0.06605942722749455,-0.18936019340263516,0.17272007978127923,-0.007962261625362205,-0.9792392647803887,0.09632498052362741,-0.1492362298594857,-1.0209804473938766,-0.05558608523365629,0.09869103597149222,-0.12937742050643794,0.27145746355195877,-0.8077942240257143,-0.3221806155587291,0.0045632394392498225,0.04503060558395583,-0.17096201070453038,0.30519208570035317,0.34231971422517865,0.0351570199574347,0.36352725336268443,-0.48485968813808733,-0.3928750241942185,0.2129499260714511,0.22556225147258283,0.11369239027073555,-0.18427245144296597,0.16187491398601803,-0.31106461844244426,-0.1926813011728956,-0.1798040758002255,0.08801701007843515,-0.01869127500963039,-0.4796925128858699,0.09768733755907394,0.3175743027968709,-0.31120539656806323,0.40181837375742774,0.032842967948737575,0.5668095705448379,-0.018814566961514026,0.20665974647630425,-0.37335410587685963,0.2582705303662807,0.12494521786690262,0.3553214356122556,-0.18855432145568227,0.229943393747354,-0.10786715162754712,0.08529063603783288,-0.046125752302737855,-0.08906229793547732,0.18986776981296793,-0.014853740050207268,0.28669151386882963,0.09563364327423456,-0.4737783104518243,0.024907071892163,0.2362372366753962,-0.23505026216747474,0.04151061363728106,0.34585220817728723,-0.045700242712197525,-0.06053621116931937,-0.7117940371960266,-0.20368902421991247,0.6200295479678222,0.03719884914521781,0.6507704151673774,0.11416194763730317,-0.29520319778586346,0.7137479597290354,-0.08322508307080878,-0.38038175383429973,0.1126114556568513,-0.06417130067793686,0.0815425057653579,0.5766644241870774,0.6620653454942573,0.3213284179739514,0.22939251598858204,0.13807633487884627,0.04901356457441203,-0.19567593923297205,-0.13120303553451362,0.2980709534965412,-0.02178579779908353,0.3146622844667755,0.06515742302672939,0.09158825548066535,0.17035985752681557,0.20162407452874911,-0.19356777250658116,0.3910518764302727,0.4364888154431963,0.3268735750230158,-0.456128490865791,0.19731639684810312,-0.313344007618436,0.4215844380456317,0.12686493300324758,0.23576962847372512,-0.09815488738719354,-0.261132122486252,0.07011004881643695,0.31480627926648863,0.17058859970198026,-0.6224143042532473,-0.07936883708546921,0.8393993109593714,0.15377816844690437,-0.1270709741480357,0.3223648259541526,-0.33908049711316635,-0.20821142974885165,-0.6704465816817855,0.29861655252224983,-0.21475317974378957,0.370668203651892,0.22654648305239727,-0.5335226155575833,-0.9303721349140678,0.21512016938652687,-0.1443071707483505,-0.10779374550174775,0.4575214092495589,0.2748078819542054,-0.19213291962380113,-0.6415564409392693,-0.1213659926824875,-0.21877170257424186,-0.23155999517214285,0.06922144304460803,0.30311900384795615,0.7547261924258952,-0.21714169565726515,-0.3228505120535545,0.1471068330256151,-0.2193738018911254,-0.41226555613133675,-0.20615520758382935,-0.022559973436523988,0.033596395571463517,0.17736124572402384,0.43643332431375115,0.5083041848779163,0.06363753822668347,0.16524527509787137,0.09356891657233118,-0.49601522399540854,-0.5575555444550201,-0.21292867512247993,0.020347765795762196,0.04343775214847199,0.7059411986328937,0.12215319408198637,-0.4628472778496098,-0.006675615385128869,-0.9983662750086745,0.2568017805237993,-0.2884918772224493,0.38271123399710083,-0.0362874922365633,-0.2810844281661833,-0.6163651020954111,-0.010678541298135336,0.4210178129854277,0.29976437853422083,0.49064363437096103,-0.40802794270615483,0.16451027512392224,0.00209277814892651,0.2698780113232566,-0.13095606333365656,-0.3915860630908984,-0.3014629605589804,-0.037988973297596505,0.7482670319152436,0.07313413522854673,0.25400459130077774,0.04908636098598257,-0.2269771995954015,-0.4153467348912171,0.36575386005926197,0.2439187131558599,-0.14261600924206938,0.14577639650511823,-0.3819351584095109,-0.3369040759961873,-0.7650359449227564,-0.5863142615979493,-0.26451256058252404,-0.44375397034397934,-0.13403002130219246,0.5133402849345531,-0.7903625164838429,-0.004748885035128089,0.12223436066003017,-0.037410377430653244,-0.20795300967514863,-0.3730048378830048,0.19781174441748475,0.38451775408113503,-0.244883797615209,-0.7489453958495467,-0.45658055028831224,0.01953562638414358,-0.11567190848699672,0.08091427704419717,-0.17720267342782106,-0.688910481391574,-0.37146886124495554,-0.47409643209236796,0.6219476554283185,-0.043944540080384925,-0.18730670962710239,-0.4212587359302879,0.4067663348453902,-0.4278573900504159,-0.27565654013123797,-0.21326225816161082,0.7216653570150091,0.28383185300017416,-0.21968789643256165,0.5940150555865976,-0.28335115586881404,-0.5582541038312963,0.09723451864709515,0.2016293697605167,-0.4666988209342936,-0.12659447754300676,0.5333371848306445,-0.17030730592781662,0.12474141388856831,-0.41565173440925146,0.14844698948022916,-0.20619873345260362,-0.2376103869728702,0.4931860632507575,0.5427288262152277,0.018454329517625212,-0.27911894847359703,0.2464532002650786,-0.22465667979722875,0.12613012855549655,-0.2457788461573232,0.3284220719638309,-0.3498556498955735,0.03859074785806205,-0.4308943821261406,-0.028152460238670816,0.06072922412204908,-0.4435019062502456,0.03958330189427828,0.6943585764101469,-0.5937583153278088,-0.20861409206408857,-0.29606265540555576,-0.266708697969661,0.10015595783614002,-0.0069000099195901665,-0.5042454665139512,0.5167720201129409,0.16866690371128107,-0.6085877562951005,-0.47585419724207906,-0.11429247771474263,0.811801608463925,-0.036323067059373465,-0.9631668401568503,-0.3484413212319635,0.161794049543924,-0.1966457702019549,0.7061016815833883,-0.4265046420888514,0.1761912187873041,-0.14200692817066837,-0.042956502387501955,-0.5949563679172387,-0.5008490661740674,-0.26294079988232033,0.6187661389054961,0.6941013414232236,0.1891122083340302,0.19194710008952906,-0.4505240915586502,0.3110910165793015,-0.197166456267872,0.20497410094074844,-0.973174234161923,0.07776603123884557,-0.045041651526165905,0.3564820279060851,0.0629239916434942,0.18508862705819523,0.12293467953026227,-0.1175286846317472,0.20236409397000488,0.016761283199049275,0.1956726012800645,-0.4251764024351932,-0.29234269302257637,-0.39352836913905065,0.1384717195797763,0.2933801005938875,0.6725134282693878,0.7718562985167419,-0.30306190953864576,-0.11459190904916748,-0.30889021348879936,0.7519160513246412,0.5697797299162403,0.4947700868826788,0.295498145192511,-0.0949340234509144,0.3841864172370833,0.27460045814637624,-1.2415825348667828,0.3897722823299014,-0.1154320712035141,-0.20093261386076772,-0.1856294080283649,-0.10115420677580853,-0.0937127774341166,0.7566177360953228,-0.17328076436603024,0.12654393588674612,0.5908803601014307,0.38761673601666885,-0.03808344475795261,-0.0834517219298181,-0.5653579960871682,0.34232452780015193,0.05960218406145695,-0.7127735636203251,-0.06586385106749386,0.2663754393679535,0.2794790220069272,-0.2075096729717112,-0.7164841780647172,0.4228376740298329,0.5070549944296998,0.13260445696720988,0.13668672859364212,0.255556393611439,-0.07470126261424775,0.4561239352177998,-0.09737787568661838,0.08146752968107104,-0.12379475697981246,-0.10349249472132038,0.3637154999899791,-0.16158710654929778,-0.23755718228850037,-0.1067935971185702,0.13439480586447053,-0.2524671116357194,0.21223586181263113,-0.24419343313838715,-0.12077153160465753,0.0501959711790082,0.17983492514168925,0.26233584848764957,-0.2199478598630919,0.4019273794162184,0.24787561749462503,0.15418718441741414,0.10852914013737003,-0.4650336424907801,-0.16237039888725316,-0.12178709206401293,-0.3845893495919027,-0.1829778809210495,0.2603002599443654,0.26117084043296634,0.19749650224122153,-0.3433080001723435,0.4302051936919492,0.21211074279017716,-0.19764963969185737,-0.17557914078344006,-0.4370005730932263,0.26300979128788543,-0.005644897652623299,-0.5290729606949905,-0.1940946065525407,-0.1983348098726112,-0.22139240206960992,-0.1324503347873064,0.17348754821525672,-0.1865825203543492,0.23796986544959708,-0.23906688135084045,0.49114540156601616,-0.017193434600303353,-0.04547458408493465,0.3711803720394874,-0.23730622028169052,0.12817322290675887,0.6714584344133319,0.4209883314413725,0.3383573763248951,-0.2629777909475673,-0.2406705571757143,-0.11664590494282168,0.44458167058588044,-0.16785902105839406,-0.14769068715848824,0.09298917100064727,-0.10528972682721133,-0.2007407359161584,-0.961213742576065,0.4860438892983384,0.0885744069430012,0.3423984083177334,0.26605157343640307,0.11680407952887804,0.1962023259407569,-0.16803075408043322,0.6460733938707426,-0.06271306976891902,-0.03450002574863967,-0.36751752463811005,-0.218026516884297,-0.7350535787918856,0.026867860338249144,-0.3939062307750202,-0.13976360560314463,0.9084723453050791,0.05208636302361638,-0.2817917813050146,-0.3062544911245275,-0.9843602316242918,-0.24549297353547944,-0.13001395823884074,-0.22176997777322405,0.3764604685944556,0.3763501196016847,-0.23783912487610076,-0.24232030143303704,0.26553936669558165,-0.34422226451160104,-0.27449296477592455,0.11543617279427675,0.10195932489006526,0.5850326082888289,-0.24075651324684041,0.11959070214030311,-0.4024018516566187,0.6760806789465437,0.15990559454557277,-0.3810452955926169,-0.03884833633350903,-0.18850908214120038,-0.3915158455457778,-0.44396877644720545,0.4428788023052248,0.3057721044344618,0.36854352523597356,-0.21206537068853967,0.025651610236810663,-0.18273025522896394,0.9102794896191992,0.3553425516734334,-0.10964460182547434,0.004325525560722576,-0.34700495885944255,-0.06778472833818236,0.5215466393657773,0.21683886078615627,0.43158913285240713,0.1405618559131757,-0.6397152953396559,-0.2425581650189494,0.14328577348287858,0.23500970373520041,-0.4806672115902544,0.20334081113880564,0.1017251785920947,0.44949222126526844,0.23075269213540894,0.20118933161703323,-0.05659751493871873,-0.675056746597662,0.41362221559825435,-0.5909398736337279,0.04329103698386787,0.2678766991347893,-0.20219525645929257,-0.4730385688338387,0.6728393602760072,-0.0521304097861679,0.10118297590369943,-0.17416387416712156,0.19980136049536915,0.7097229412408347,-0.6394984559088229,0.3804334240397075,0.45531299720302065,-0.16787712496646434,0.792494768627811,-0.7269659032293839,-0.5372295046327767,0.391284009714439,0.40306603026979104,0.09159850292777799,0.47205304942891096,0.11484690531721067,0.5136648675079492,-0.3679279522184529,0.0563791781498584,-0.3360630513097551,-0.2249410722667036,0.6005267528369831,-0.31548613873529685,0.05831418024327825,0.06824621702935435,0.34749489537009404,-0.0741920002428067,-0.2246806586297237,-0.008749666683608001,-0.0929195967565177,0.04188093375722318,-0.43752611865317104,-0.048141208464527324,-0.40821586958656186,0.1589161525174062,0.21116511879160055,0.6336134130420259,0.02632287624635196,0.2364991489032577,0.16358299871976262,-0.039160453473173346,0.6022549262769692,0.09313917016331857,0.20198110020346294,-0.44234101880008747,-0.5702038907056795,0.166761808206375,0.6822550363771976,-0.21051273204321036,0.420736592673417,-0.3656335031977389,-0.06482469136887836,0.34190864956756123,-0.19292057050497824,0.38832830856186323,-0.06196799566475983,-0.06484038289480261,-0.06522108613041443,-0.04978029017333485,-0.021608338229980345,0.750484484252414,-0.23413416605407775,-0.10238877771042322,0.7730858237830351,0.037006940938301064,0.23020775522252185,0.4720735477752905,-0.09161212433844822,0.10231299053320969,0.12733258362279282,0.3887810902268665,0.7354182638156405,0.38533650562566607,-0.8410189678004953,-0.012083700493192101,0.08005173400469148,0.36716931133276587,-0.015131856934654228,-0.26581622578746766,-0.06141968362790726,0.5548842753265584,-0.8275126492723562,-0.2725404764991423,-0.24186672885668284,0.045115584872683134,-0.121433468532522,0.7453194629139729,-0.48598446243385995,0.055696757893643256,0.4947007956744294,0.3267686939119685,-0.06967026100119872,-0.0895542666418849,0.1624917093215253,0.029421471502547786,-0.3827908257963831,0.11671067320162967,0.13363772409241015,0.07452341674064539,-0.47654679401282685,0.10854635315924203,-0.36966466911715506,0.03894587395618693,-1.0694217370106487,0.07130560091027707,0.45893973513288344,0.24677777933202094,-0.18129145005127653,-0.16342577046765927],[-0.12018353937486928,-0.3705238670404579,-0.2779584176572354,0.3826961978516097,-0.6981614920212784,0.03022173047117621,-0.3700042124947238,0.031060629316478995,-0.44702813186417,-0.018049914284382795,-0.06595972728036259,0.36506669111695794,-0.011269331789155429,-0.5417253706298817,-0.1901969293975872,0.1618483061519579,-0.20402286973029796,-0.6587695558109004,-0.03295141882320546,-0.44700905507590905,0.605214693316236,-0.36858611720385426,-0.2534372199765552,0.7951142983221939,-0.10096967648661151,-0.7814255637088829,-0.3766642183454988,-0.6330095722001664,0.7193302125559448,0.051485704161640056,-0.2650473441767736,-0.30411491913188193,-0.3507452812349306,0.2591950144659757,-0.5478792162526478,0.26110723693173143,-0.09093360594747901,-0.3694748584754899,0.27955028725200476,-0.166322364222249,0.3291856633370081,-0.2462182321290045,0.4521728920742888,0.32233965049462776,-0.01874656250889023,0.3897690844084963,-0.3400237150401518,-0.5578609250569622,-0.3050724703882505,0.21156183360618552,0.4842538504893995,0.4536583571092707,0.034856115734454435,0.06439877333273566,-0.14881785411288273,0.029815010121993793,0.22216829057472182,0.37690017255103553,-0.01723676344497163,-0.20236629430016,-0.24655765872654734,0.22317684077000682,-0.21825628814984582,0.38296904644713714,0.16324358779388426,-0.1357813088847587,-0.22676266984513987,-0.2768999181025836,-0.10775746579374858,-0.1524637760269956,0.03089892088478674,-0.44509582000639225,0.959351468431602,0.10393236804171767,-0.04925820548752963,-0.6720388184889483,0.39129586996716836,0.26471237322565216,0.19391377649090819,-0.20209483567238126,0.056912377206665886,-0.06294169361318147,-0.7261810374091955,-0.4194249843285107,0.6905665995799873,0.27706582451679085,-0.6778307065344502,0.9403692575489581,-1.0736907051324764,-0.37201349607118017,0.3216864253755249,-0.005999617005700425,-0.07371527068614614,-0.4858481622781424,0.21524939463680598,-0.6171088914145795,-0.034471329580884336,-0.7686102031603127,-0.034387208106966966,0.144678982606633,-0.4505971202459618,-0.6988450702736386,-0.3347521875852881,-0.12196589883892439,-0.3396586856114442,-1.1609197994991043,0.24643051645048003,-0.6355146532072434,0.3035453297479876,0.3059309125235741,-0.28186245646000424,0.6662345292184169,-0.03881530528525157,-0.14465036055215685,0.4444610996130365,-0.3985772762069074,0.5813465314872758,0.15393884967982271,0.4788958064198272,0.2771901502417147,-0.8339616772486076,0.24041389900340515,0.34940936174115667,-0.309582614135451,0.9933743754560396,0.1764667969944091,0.22413410904692205,0.2120963118990914,0.666047937190023,-0.24854372345358855,-0.5693815356033664,-0.25885406486055196,0.471560925751234,0.23867211517035816,0.5486708107511521,0.26864429855809524,-0.15143942261664664,-0.7396999865250002,-0.26439373821845347,0.3888340941533005,-0.17543153970620773,-1.2315370794766376,-0.43833829523209383,-0.420655819806272,-0.12575274880781662,0.5192086227810656,-0.38160630671972257,-0.2519279961599341,-0.13511933236992543,0.13440982501907034,0.29562024346395943,-0.7331283010038372,0.439740868812718,0.26744294337797436,-0.0054535307336681105,-0.4563143841537355,-0.20927553338837745,0.6334275128769838,0.43754461662967375,0.2886393827739609,0.13009101893061778,-0.32758752496470805,-0.2690747766062556,0.48893156872404564,0.0164109191306408,0.1834376858963432,-0.3592228874653529,-0.44844764800888204,-0.3300592248075988,-0.04580637673951282,-0.2803370481742912,-0.31685450550820116,0.4269072303825396,0.15213364698594606,-0.4736298447323891,0.274192676104539,0.11301409412221447,-0.5037383638097039,-0.27302017568245873,0.06544212940188954,-0.28257579006127054,0.08116372760939508,0.4750170754434419,0.422687019094367,-0.6849947688894282,-0.06916588287100238,0.26229176416021815,-0.4753728376270565,-0.4373859890139926,-0.2612544979341907,0.5209954200031499,0.6124702395748062,-0.5328110065496436,0.17772890939324312,0.7393825848844917,0.12216242093828784,-0.24729606229518766,0.34425041231237447,0.15271739453731742,-0.34466508521036854,-0.03406990297243046,0.5550705040824135,0.33297314754454904,-0.7756594658641023,0.11535777892751929,0.9112040065016109,-0.822985871286739,-0.11612282376354863,0.3560045896986598,0.6070172243427033,-0.10312913400014936,0.013122563266858192,0.2538128971585913,-0.07505281305977446,0.6005709710321294,-0.5125384889771009,0.34702937682641877,-0.07803791309426031,-0.4065970963391441,-1.1115240841534904,-0.18962569344214447,-0.05887105504489238,0.008136551242473866,0.5995057915575346,0.3687264803944754,0.4420736620787896,-0.438679863771718,0.06785387259981929,0.1771320974386501,0.08195115861291888,0.18026046703171436,0.16360586881957795,0.02395060067217955,-0.47437644196260115,0.379404300429097,-0.46352830086221797,-0.34105800668223973,0.09400850231499333,0.5016978735081138,0.49782625033431493,-0.07348147568407082,-0.23279533201719577,-0.054430373598279395,0.0729375896972479,-0.327303653863953,-0.8715948615085726,-0.3832814780787465,-0.4998377619397949,-0.1903519736858062,0.0823264089270137,0.574935352784609,-0.6048777310516067,-0.24251196611081777,-0.14890971506925688,0.5183926998125382,-0.3565911200740784,-0.021076420719108646,-0.6637704231604722,-0.42695871040348354,-0.1929440313529328,0.5924715104608854,0.38260813253854176,-0.18235506077899957,-0.13732683947723942,0.44809479774093414,0.8764779118023417,0.09597819518720782,0.11360847326133197,0.05812509731428477,-0.5252498476800389,0.2726449325036906,-0.26638241851860145,0.25312930632091774,0.8506224322065453,0.5210904143384256,-0.1840049330304536,-0.6326115108597696,0.28623138591600256,0.1391719976231096,0.1632380276840902,-0.27715134697381894,-0.18821978933026504,-0.22170455366426095,0.15510800057269508,-0.17789924014953257,0.04889541908572198,0.5355710066385824,-0.08827421390573797,0.5985124648642477,0.5047794461882182,-0.028045322764958337,0.36055926351327366,0.12647529868046092,-0.03807428272141733,-0.132382168700282,0.07095203239241049,-0.12762457078538228,0.2131482315771819,0.5945671447737992,-0.06108898791341574,-0.31557671326882253,0.1926997649248614,0.11148368009796827,0.10716757301425936,-0.35613057756856165,0.2429618455774534,-0.36229258924393903,0.9887420543640515,-0.23099837155145253,0.5347477282922267,0.22251603576359633,0.2787500214860754,-0.14792925515057326,-0.17824780926580705,0.050943024886083765,0.15683705412707236,-0.1004188700232799,0.30414783476253615,0.31652369802769764,0.14968870559508168,-0.3027289953276566,0.14868312489404883,-0.037470452376125674,0.2575409344481202,-0.42770879577911114,-0.12548954532578876,-0.26618439551752776,0.6893040259944845,-0.1561371695951743,-0.1064317902302475,0.09444013786330603,-0.5053485317771866,-0.06341313423814304,0.06784654792630967,-0.22853978826943538,-0.6414818744679204,0.2587453905092357,0.25043272126839883,0.21004076882074116,0.015254071168357225,-0.2380605189944066,-0.606954437871275,0.11966162263551616,0.2875667910703407,0.19310572086860772,0.47604465492658754,0.21272621710438003,0.27973340657462087,-0.3454860824601713,-0.2806517601307661,0.09621356078794202,-0.2429007565837193,0.1588580607102242,-0.1805479823843032,-0.2319354253543062,-0.22658953463971793,0.09583037685734044,-0.25882718473492794,0.1779673021412143,0.5632285007483425,-0.1650683742340934,0.8043909820892714,-0.032546863214660826,0.0005084438265197666,-0.4133876709678873,0.16259571139522755,-0.602622363863573,0.22507406819609602,0.3252020267547831,-0.6413225999557279,-0.6826082450519989,-0.6485021753220935,0.5117326824605009,-0.5539279900974595,-0.22031602840920253,-0.0883662549090648,0.7578780360665096,0.4583229097612374,-0.08058235851717566,0.07197944210423925,0.38907311721161936,0.273203636517019,0.3342804073727571,-0.08105493671370116,-0.3150831544324201,0.23735688321680742,0.11199840564715677,-0.4545551182608463,0.02118253169084855,-0.1624000246687962,-0.29352570485755025,0.49128205321302565,-0.3701959179377263,-0.05163500013142597,0.33556535423573547,0.14672109862660565,-0.11331565879000027,0.3738290748061446,-0.1637898670882678,-0.47512785718230943,0.5109074728180715,0.050270188038153224,0.23700086773073437,-0.04742482814965798,-0.04525811471930822,-0.31194846075166904,-0.4012394070104376,-0.1064888365076615,0.2242280449095493,-0.7429802198952519,-0.10065734580229702,-0.5830084689432583,-0.44948656619693844,-0.2350885123267356,-0.41015970104688604,0.05183685137482558,-0.1334086337924661,0.4646836289837211,-0.4451967674623175,-0.9428125732841222,-0.050394728383766185,0.43335759846336686,-0.5392601501418621,0.07240601634987011,-0.1570567349151071,0.49390919513594217,-0.2653981928981439,0.7098678318991556,-0.16822862588452406,-0.1878231546543178,0.3323445228088325,-0.056270598196041105,0.07138889424960873,0.5241743991734593,0.5210937538494453,0.11510538052992653,-0.2496161744018679,0.04697603261185904,-0.09381463307525534,-0.14517437148893997,-0.28254110201147875,0.16826158194330076,0.18175941503491805,-0.06415373068592573,0.07316107515756247,-0.22920681131528828,-0.0818189957464782,-0.01707438082013865,0.11316539459868338,0.3802282716307258,0.26964845587880815,0.6087043582524163,0.13286771912571843,0.005665611382004582,-0.03477259336971117,0.9120981582138417,-0.8302362661400416,-0.24477320632271704,0.07523573178768696,-0.00920836202460731,-0.8946985809881733,0.11415982018329501,0.17336053811394422,-0.18543194847028305,-0.08525030699618993,1.0087295787668666,0.2945899913090097,0.14866656056835983,-0.6273707825663307,-0.30986036494071406,0.6218165691246061,-0.3219574222623918,0.029817557940461092,0.4564231927317083,0.1329057210510089,0.10222471639074399,-0.06766619636689267,0.4561574726761028,0.07986164658681669,-0.2797162466760126,0.2143703650740616,0.24822891171805728,0.32161313896005894,-0.05498018428755071,0.47680488063675264,-0.13883105316885952,0.8712779335418588,0.24152657856670598,0.41083602433173205,0.46987013267966904,0.34478954736992345,0.04777294555966305,0.0820075836325441,-0.001332976491313087,-0.8442438258548939,0.004213131225930478,0.113603219604659,0.15445619135331726,-0.11868086430600118,0.10039902050491462,-0.12183513737374754,-0.9303026560428622,-0.18027111843163277,-0.08355771099265841,0.34988410739412473,-0.7634610934893207,0.5040936352127565,0.7369027994347748,0.5534277458800505,-0.22444335400262982,-0.3313332136441173,-0.14598954331220407],[0.1552711248678644,0.4677641311820948,0.00652215950870072,-0.36266968801189153,0.7397062073775369,-0.7871732139980865,0.14326992503590544,0.0026037286523842742,-0.08662057150610508,0.6300337861395544,0.41666100474539136,0.46445717517948776,0.04665155810442356,-0.06791036773069906,0.2444529446933778,-0.7094748858086237,-0.08516802055093857,0.30816462208979467,-0.13318793354357444,0.10392866928666672,-0.28817721157392423,0.5579523618132335,0.12007907286437393,0.5033454354850252,-0.2355220923152056,-0.1941258123214754,-0.1466406929148955,-0.25396442266659225,0.4949341132567479,0.23889984919696422,-0.37173848841227836,-0.3161747853707598,0.5621791459251045,0.0954577089604961,0.25775692253459753,-0.4507264853109319,1.0406817831606139,-0.47875296002267176,-0.3986075055397959,0.856420016996791,-0.4518223242669618,-0.5688811078870589,-0.40892204628367224,1.0048116216445173,-0.529194009040777,0.16966030076271912,0.26777033582700116,-0.722069718883396,-0.16659651528124558,-0.14732541770493757,-0.283902025388557,-0.4469174308951132,0.2525974534276597,0.127126877827567,0.2633395525607413,-0.3711166683177673,0.004133168954131378,0.06524886430365034,-0.07783450314970852,-0.15536802548376638,0.11967335911138921,0.43573251569523513,-0.42853777397997694,-0.16334561956633703,-0.5872166525958982,0.20675266280648677,0.1478521229102551,-0.2957716184616017,-0.4630399058953813,0.48776710033834414,0.44138631313189747,0.5417500769080223,-0.5931990231122422,0.5909355113948311,0.29610892567545255,0.5990123469835982,0.24288951589375607,-0.3336121988263563,-0.19385723023426898,-0.4958997830004143,0.2103083503175351,0.7823498903128875,0.19829939685429665,0.15863383054506974,-0.1563903900059348,0.39046435874535046,-0.2783344169333146,0.36331442704582395,-0.5126791315938131,-0.21209393744354577,-0.24442436294157,-0.21544978801732623,0.6216208980030706,0.3904459519396059,-0.7051465800366575,0.569914889733472,0.7987785012669293,-0.029841150015851192,-0.4345676614254152,0.17437637258994654,0.28004829682303545,-0.04263618044328704,-0.28917177860172594,0.2609588699177056,-0.175944829956603,-0.022276887877578998,0.08308777587915342,0.5843360898937263,-0.1834793440871126,0.5906823976330902,-0.7515944161530497,0.2752246326743734,0.15237623480323836,-0.2108449843747076,-0.6008079115314967,0.19950332453676836,-0.11079371441102909,-0.12399929184362925,-0.11792680515061266,-0.434817002869172,-0.20954714061957116,-0.3105386071613569,-1.097425094160285,0.016091130982301027,-0.030315878239941585,-0.12631139394451227,-0.5329963191233635,0.41054160114449884,-0.15695316513670377,0.8492449951966858,-0.4298172348331805,-0.4751276161268946,-0.14586324958384161,0.319248035347261,0.22549407162557034,0.4729979598813441,-0.22027158235814945,-0.159125135419672,-0.1953050811212499,0.21149094721179273,0.22487124334452496,0.2750688480052823,-0.010742241851682655,-0.36667034262451065,1.197136422779192,-0.3878182872225231,0.8079276073269335,0.016949211690144225,-0.4154402934668159,0.4181297623715087,-0.1404156037780318,0.35475253228058135,-0.16533573452461453,-0.07705660088367708,0.17713837702019292,0.03835134501106695,-0.46945154109840115,0.08351131074325652,-0.595615263443324,-0.15181085379517847,-0.18082322810744353,-0.25135616858407084,-0.04286864557608004,0.09937868960221485,-0.05396361481418876,0.03623551358209632,0.23558274869916956,0.3971121866316323,0.5773084353616247,-0.5804531634912696,0.41541621318914546,0.4433194940915561,0.20421163801486586,-0.16713553220828276,0.3686182390066725,0.012620192798960638,-0.7286696315191031,-0.16932117425635423,0.17995081745653635,-0.21752261252822194,-0.4468516114711119,0.002374660285176633,0.27119371865543473,-0.10878980840559332,0.01834864894829502,0.09677197558177905,0.20998887320547832,-0.32203793259223906,-0.12163218079080568,-0.7557382317257055,0.22070838697430886,-0.661942258068347,-0.43506814675525324,0.33149916727338785,0.774157787613305,-0.36235266800672106,0.7042141308640535,0.17952503295421426,-0.1697012894886008,-0.22071375621146977,-0.5008105615090108,0.0852674742398048,0.6698794644094376,-0.3207766328988992,-0.41451862802675465,0.7277101718706978,-0.15453802945027267,-0.772481526276353]],"biases":[[0,-0.3306045552376258,0.028032985520163062,-0.27164768841522324,0.08149986411691562,-0.20105650465936264,-0.6800792805539426,0.287605184696367,-0.3514519080566446,0.06267652550729767,-0.09230354546833759,-0.07621733086053178,-0.3648940799337599,-0.0011271714006802825,-0.6431174728428746,0,0.48158441063956964,0.3353550205610374,-0.11272010344501257,0.04260537531668779,-0.029980917697353948,0.4713582310274925,-0.1622113479198818,-0.6650222359489282,0.4504736376322674,-0.40071553985488717,-0.28830302843879285,-0.20865942897349682,-0.6247514684565685,-0.1355161677811795,0.0335025188516864,0.08978115914727597],[-0.227548758130083,0.2914577755775696,0.26602850063931605,-0.02778552256252151,0.23317982881621263,-0.003912848075811048,0.11848313114681108,-0.2669302035621332,0,0,0.04354614296465425,0.6117338021679375,0,-0.40500977447543607,-0.04446774951839813,0.011475981559978976],[-0.025664730624812296,0.34673181792980473,0.08467661688192862,-0.801023595822339,-0.3712766583850819,-0.20619983544968043,0,0.03664765350619312,0,0,0.3828612283905456,-0.3329653270583579,-0.1420819379648151]]};
